#ifndef WEIGHTS_H_                 
#define WEIGHTS_H_                 
#include "global.h"

static dense_biases_t dense1Biases[DENSE_1_OUTPUT_WIDTH]  = {0.21875,-0.1875,0.59375,0.28125,0.25,-0.03125,0.46875,-0.21875,0.21875,0.1875,0.6875,0.15625,0.125,-0.125,0.21875,-0.125 };
static dense_weight_t dense1Weights[MODEL_INPUT_WIDTH * DENSE_1_OUTPUT_WIDTH] = {0.,0.,0.,0.,0.,0.,-0.34375,0.03125,0.,0.9375,0.,0.,0.,-0.03125,0.,0.,-1.1875,1.03125,0.,-0.125,-0.03125,0.,-2.875,0.,1.78125,-3.96875,0.75,0.,0.34375,-0.125,0.09375,-0.34375,-1.46875,1.25,0.34375,0.5625,0.59375,0.375,-0.03125,1.,0.,0.,0.,-0.78125,0.34375,-0.4375,1.0625,-0.375,0.4375,-0.375,0.,0.,-0.65625,0.71875,0.,0.,0.,0.,0.,-0.84375,-1.125,0.59375,1.,1.125,0.,0.,0.46875,0.75,-0.5625,-0.5625,0.,0.,0.,0.,-0.71875,0.,-0.6875,0.,-0.34375,0.6875 };
static gravnet_biases_t dense2Biases[DENSE_2_OUTPUT_WIDTH] =  {0.064697265625,-0.0203857421875,0.0235595703125,-0.0052490234375,-0.0367431640625,-0.0059814453125 };
static gravnet_weight_t dense2Weights[DENSE_1_OUTPUT_WIDTH * DENSE_2_OUTPUT_WIDTH] = {0.,0.16650390625,0.2252197265625,-0.0885009765625,0.,0.014892578125,0.,-0.1820068359375,-0.2550048828125,0.100341796875,0.,-0.0245361328125,0.046142578125,-0.19140625,0.061279296875,0.,-0.250244140625,0.1668701171875,0.0220947265625,0.1865234375,-0.15966796875,0.,0.,0.,0.019775390625,-0.10986328125,0.0701904296875,-0.05859375,0.0377197265625,-0.0390625,0.,0.,0.,0.0908203125,0.,0.,0.,0.0076904296875,0.01416015625,0.,0.,0.,-0.0274658203125,0.0247802734375,0.208740234375,0.,-0.0382080078125,0.,0.1710205078125,0.0882568359375,0.1951904296875,-0.0423583984375,-0.0552978515625,0.051025390625,0.,0.,0.0093994140625,0.,0.,0.,-0.4039306640625,0.0623779296875,-0.1337890625,-0.0526123046875,0.2125244140625,0.,0.0330810546875,0.1341552734375,0.11376953125,0.199951171875,0.,-0.06103515625,0.,0.,0.01171875,0.,-0.1717529296875,-0.213623046875,0.,0.,-0.0999755859375,0.,0.,0.,0.,-0.085205078125,0.,0.0882568359375,0.1500244140625,0.0523681640625,0.,-0.00390625,0.,-0.016357421875,0.1793212890625,0.1783447265625 };
static gravnet_biases_t dense3Biases[DENSE_3_OUTPUT_WIDTH] = {0.5789794921875,0.0321044921875,0.94677734375,-0.041259765625,0.2567138671875,-0.259033203125,0.39208984375,0.0823974609375 };
static gravnet_weight_t dense3Weights[DENSE_1_OUTPUT_WIDTH * DENSE_3_OUTPUT_WIDTH] = {0.,0.,0.317626953125,0.5369873046875,0.3214111328125,0.,0.31787109375,-0.34912109375,0.,-0.2947998046875,-0.3533935546875,-0.792724609375,0.,0.0614013671875,0.,1.17724609375,0.7401123046875,0.,1.1019287109375,0.,0.,0.79931640625,0.,-0.089111328125,0.,0.4766845703125,0.5150146484375,0.,0.,-0.0040283203125,0.,0.05908203125,0.7685546875,-0.2889404296875,-0.1231689453125,0.,0.,0.,0.4376220703125,0.,0.4044189453125,0.339111328125,0.4415283203125,0.692626953125,0.,-0.3001708984375,0.3143310546875,0.,-0.0732421875,-0.79345703125,-0.171875,0.,-0.5081787109375,-0.2667236328125,0.7596435546875,-0.190185546875,0.,0.,-0.0728759765625,0.,-0.4166259765625,-0.65478515625,-0.2088623046875,0.1708984375,0.,1.171142578125,0.8397216796875,0.282470703125,1.046875,-0.179443359375,-2.193115234375,0.6866455078125,0.,-0.7015380859375,0.,0.,-0.255615234375,0.,0.269287109375,0.,0.6416015625,0.,0.,0.56298828125,0.3309326171875,0.,-0.16796875,-0.092041015625,-0.3404541015625,0.,0.32373046875,0.,0.,0.60693359375,0.,0.,0.230712890625,0.4378662109375,0.,0.562744140625,0.,0.6905517578125,0.,0.027587890625,0.,0.3388671875,0.,-0.4420166015625,0.1319580078125,0.65380859375,0.0655517578125,0.,0.0814208984375,0.,-0.1409912109375,-0.3505859375,0.,-0.6307373046875,0.,0.461181640625,-0.3345947265625,0.,0.5863037109375,0.,0.,-0.5107421875,0.,0.47412109375 };
static gravnet_biases_t dense4Biases[DENSE_4_OUTPUT_WIDTH] = {0.1944580078125,0.0694580078125,-0.25,0.0047607421875,0.0042724609375,-0.0166015625,0.1888427734375,0.028564453125,-0.0230712890625,-0.0560302734375,0.024169921875,0.3988037109375,0.1636962890625,-0.2979736328125,0.0313720703125,0.0401611328125,0.1148681640625,0.199462890625,0.13623046875,0.028564453125,0.2716064453125,0.1231689453125,-0.1314697265625,0.3489990234375,0.017822265625,0.06982421875,0.0927734375,0.3104248046875,0.238525390625,0.0201416015625,0.1903076171875,0.2220458984375 };
static gravnet_weight_t dense4Weights[GRAVNET_1_OUTPUT_WIDTH * DENSE_4_OUTPUT_WIDTH] = {-0.203369140625,0.,-0.0645751953125,0.2674560546875,0.,0.,0.18017578125,0.2562255859375,0.2269287109375,0.,0.,-0.239990234375,0.059814453125,-0.2225341796875,0.350341796875,0.306884765625,0.0728759765625,0.1060791015625,0.,0.,0.,0.18408203125,0.,0.,0.0518798828125,0.,0.0301513671875,0.,0.,0.1490478515625,0.1424560546875,-0.0113525390625,0.11328125,0.,0.116455078125,-0.296142578125,0.,0.,0.,0.,-0.2630615234375,0.,-0.2589111328125,0.,0.,0.,-0.1611328125,-0.1392822265625,0.,0.,0.,0.2513427734375,0.,0.,0.,0.0323486328125,0.2205810546875,0.,0.,0.,0.,-0.34912109375,0.,0.,0.,0.161376953125,-0.1480712890625,-0.134033203125,0.309326171875,0.,-0.2042236328125,0.0772705078125,-0.442138671875,-0.37060546875,0.3336181640625,0.,0.,0.,0.5718994140625,0.,0.200439453125,0.,0.406005859375,0.,0.,0.,0.1893310546875,-0.089599609375,0.,0.,0.3408203125,0.,0.,0.,0.,0.2698974609375,0.2581787109375,0.,0.088134765625,0.3525390625,0.1607666015625,0.,0.4945068359375,0.,-0.1395263671875,0.3154296875,0.1041259765625,0.169921875,0.,0.2525634765625,0.,0.2235107421875,0.,0.1617431640625,0.,0.,0.,0.,0.,0.,0.,0.,0.,0.234375,0.1429443359375,0.2259521484375,0.,0.2679443359375,0.246826171875,0.,-0.0076904296875,0.,0.390869140625,0.1956787109375,0.4385986328125,0.4478759765625,-0.3697509765625,0.,0.,0.,0.,0.,0.094970703125,0.3319091796875,0.3804931640625,0.024658203125,-0.24853515625,0.,0.1346435546875,0.,0.,0.,0.,0.,0.,0.2564697265625,0.,0.,0.,0.164306640625,0.163818359375,0.20654296875,0.,-0.036376953125,0.421875,0.,0.1671142578125,0.270751953125,0.,0.,0.,0.,-0.103759765625,0.0855712890625,0.,0.,0.,0.,-0.21337890625,0.2081298828125,-0.0087890625,0.,0.,0.,-0.2978515625,0.278076171875,0.,0.,0.18408203125,0.,0.1026611328125,0.,-0.1654052734375,0.,0.8997802734375,-0.114990234375,-0.0242919921875,0.0601806640625,-0.0374755859375,-0.2752685546875,-0.02587890625,0.1568603515625,-0.3067626953125,0.,0.,-0.060302734375,0.4000244140625,0.3223876953125,0.,0.0546875,0.,0.,0.2886962890625,0.,0.052001953125,0.,0.,0.,-0.0802001953125,0.,0.1839599609375,0.1368408203125,0.1494140625,0.1326904296875,-0.2572021484375,-0.2479248046875,-0.148681640625,0.0330810546875,0.,0.0953369140625,0.,-0.20166015625,-0.22021484375,0.,0.,0.,0.2293701171875,0.,0.199951171875,-0.2825927734375,0.,0.,0.,0.,0.,0.,0.,0.,0.410400390625,-0.0234375,0.028076171875,0.349365234375,-0.101806640625,0.05908203125,-0.3218994140625,0.1673583984375,0.0040283203125,0.2054443359375,0.3443603515625,0.203369140625,0.,0.,0.2066650390625,0.1483154296875,0.,0.,-0.237548828125,-0.097412109375,0.,0.,-0.1644287109375,0.23974609375,0.11328125,0.,0.,0.,0.0169677734375,-0.2481689453125,0.,-0.7752685546875,0.,-0.2310791015625,0.,0.0350341796875,-1.63232421875,0.167724609375,0.,0.,0.1114501953125,0.1060791015625,-2.278076171875,-0.0240478515625,-0.889404296875,0.0880126953125,0.,-0.182861328125,0.1585693359375,0.62109375,-0.541259765625,0.0882568359375,-0.921630859375,0.099365234375,0.,0.,0.,0.22021484375,0.,-0.1790771484375,0.42626953125,0.,0.216064453125,0.831298828125,0.,0.,0.,1.0062255859375,-0.052734375,0.,-0.0904541015625,-0.4229736328125,-0.25,0.1878662109375,0.,0.,0.,0.23486328125,0.,0.,0.1805419921875,0.4119873046875,0.3690185546875,0.,0.,-0.028564453125,-0.02490234375,-0.303955078125,-0.1883544921875,0.04541015625,0.,0.308349609375,0.,0.3441162109375,0.,-0.03369140625,0.,0.4984130859375,0.1939697265625,0.,0.,0.265380859375,0.,-0.1727294921875,0.348388671875,-0.1341552734375,0.0140380859375,0.2071533203125,0.,0.,0.,0.4141845703125,0.,-0.12646484375,0.,0.193603515625,0.,0.,-0.15673828125,0.,0.2392578125,0.,0.,0.228515625,-0.141357421875,0.,-0.0150146484375,0.077392578125,0.,0.150390625,0.,0.,-0.025390625,0.0687255859375,-0.1148681640625,0.2557373046875,0.,-0.1441650390625,0.,0.,0.,0.,0.0615234375,0.,-0.0849609375,0.,0.,0.,-0.0244140625,0.,0.1956787109375,0.,-0.33740234375,0.,0.,0.204833984375,0.,0.,-0.1019287109375,0.0408935546875,0.,0.1148681640625,-0.362060546875,-0.1109619140625,0.,0.,-0.0726318359375,0.,0.49609375,0.,0.,0.0902099609375,0.,0.,0.,0.171630859375,-0.0950927734375,-0.0001220703125,-0.087890625,0.30810546875,-0.0816650390625,0.3648681640625,-0.1722412109375,0.,0.,0.,0.,-0.175537109375,0.,0.,0.,0.,0.,-0.1492919921875,0.,0.014404296875,0.0550537109375,0.,0.,0.,-0.0760498046875,0.,0.03271484375,0.,0.,0.,0.09521484375,0.,0.193603515625,0.,0.,0.,0.,-0.0928955078125,0.176025390625,0.1524658203125,0.,0.,0.132080078125,0.,0.1514892578125,0.04833984375,0.323974609375,0.0289306640625,0.2525634765625,0.,0.,-0.1253662109375,0.,0.,-0.0372314453125,0.,0.,0.3363037109375,0.05419921875,0.,0.,0.,0.,0.,0.,0.,0.0416259765625,0.,0.01416015625,0.10546875,-0.2520751953125,-0.0777587890625,0.209716796875,0.0150146484375,0.,0.,0.,0.02294921875,0.,0.,-0.0277099609375,-0.015625,0.11669921875,-0.0489501953125,0.14794921875,0.,0.1444091796875,0.20556640625,-0.9510498046875,-0.6556396484375,-0.05322265625,0.,-0.183837890625,0.,0.,-0.677490234375,0.,-0.1719970703125,-0.2357177734375,-0.3319091796875,0.130859375,0.,0.1973876953125,-0.237060546875,0.048828125,-0.752197265625,0.3468017578125,0.553466796875,0.,0.3726806640625,-1.4644775390625,-0.6016845703125,0.,-0.2005615234375,-1.1517333984375,-0.066162109375,0.50390625,-0.459716796875,-1.18359375,0.,0.,0.140380859375,-2.024169921875,0.,1.5032958984375,0.4371337890625,0.,-0.185791015625,-0.4603271484375,0.,0.,0.,0.,0.,0.,0.2811279296875,0.43798828125,1.2039794921875,0.,1.0631103515625,-0.67041015625,-0.18310546875,0.1185302734375,0.214599609375,0.119384765625,0.1343994140625,0.,0.,0.,0.,-0.6240234375,0.,0.,0.025390625,0.33837890625,0.,0.,-0.923583984375,0.,0.3031005859375,-0.7679443359375,-1.587890625,0.2242431640625,-0.3626708984375,0.,0.198486328125,0.,0.353759765625,-0.5184326171875,-1.0570068359375,0.,0.,0.1199951171875,0.,0.,0.13232421875,-0.186767578125,-0.66796875,-0.32421875,0.7230224609375,-0.3466796875,0.,0.,0.762451171875,-0.743896484375,0.01806640625,0.119873046875,0.,0.0491943359375,-0.1136474609375,-0.5816650390625,0.,0.,-0.0948486328125,0.3177490234375,0.4107666015625,0.3048095703125,0.932373046875,0.,0.,-0.672607421875,0.,0.2115478515625,-0.1978759765625,0.5751953125,0.692138671875,1.1815185546875,-0.3414306640625,-0.609130859375,0.7313232421875,-0.5594482421875,0.03955078125,0.,0.,0.0001220703125,0.,-0.1939697265625,0.6456298828125,0.,0.6697998046875,0.436767578125,-0.09716796875,-0.0150146484375,0.,-1.2747802734375,-0.6383056640625,-1.1314697265625,0.3287353515625,0.9774169921875,0.774169921875,-0.1778564453125,0.,0.,0.5648193359375,0.3128662109375,0.21044921875,0.0009765625,-0.5303955078125,0.,0.3511962890625,-0.4730224609375,0.3057861328125,-0.2296142578125,0.,-0.1319580078125,0.,0.679931640625,0.,0.32421875,-0.2401123046875,-0.3133544921875,0.47216796875,0.58740234375,2.5296630859375,0.0059814453125,-0.186279296875,-0.1910400390625,-2.4283447265625,0.47216796875,-0.548828125,-0.588623046875,0.,-0.2139892578125,0.9423828125,0.548828125,-0.21630859375,0.3123779296875,0.5408935546875,0.0582275390625,-1.40771484375,-0.6107177734375,0.3231201171875,1.4815673828125,0.6495361328125,-0.055419921875,0.0679931640625,0.705078125,0.2296142578125,-1.5657958984375,0.7484130859375,-1.443603515625,0.,0.0001220703125,-0.4873046875,-0.60693359375,-1.927978515625,-0.8414306640625,-0.49755859375,1.193115234375,0.,0.,-0.11572265625,-0.983642578125,0.,-0.5028076171875,0.,0.,-1.4669189453125,-0.233642578125,-0.968505859375,0.6083984375,0.,0.0335693359375,-1.134521484375,-0.3544921875,-0.02734375,0.1634521484375,-0.543701171875,-0.8555908203125,0.,-1.105712890625,-0.1375732421875,-0.387939453125,-0.0084228515625,-0.2147216796875,1.19921875,1.135009765625,0.099609375,0.1171875,0.,0.01953125,0.5447998046875,0.,0.,0.8431396484375,0.900390625,0.100830078125,-0.03515625,0.1859130859375,-0.350830078125,0.345458984375,0.617431640625,0.441162109375,0.,0.243408203125,0.,-0.2647705078125,0.,-0.2928466796875,0.,-0.132080078125,0.,0.,0.0023193359375,0.1181640625,0.,-0.0238037109375,-0.1522216796875,-1.5526123046875,0.,-0.0067138671875,-1.536865234375,0.1656494140625,0.,0.,0.38330078125,0.,0.2957763671875,-0.5650634765625,0.,-0.7735595703125,0.2626953125,-0.2061767578125,0.,0.,0.,0.,0.,0.5909423828125,0.3409423828125,0.,0.,0.239990234375,-0.6661376953125,-0.4354248046875,0.1776123046875,0.3858642578125,0.4886474609375,-0.3544921875,-0.6424560546875,1.3580322265625,0.,0.,0.182373046875,-0.20751953125,0.,0.6715087890625,0.,0.59716796875,-0.59375,0.8983154296875,0.3177490234375,0.,-0.94970703125,0.2099609375,0.,0.,0.,-0.1524658203125,0.67626953125,0.,0.0079345703125,0.,0.970947265625,0.,-0.205810546875,0.,0.,0.,0.,0.,-0.8695068359375,-0.8907470703125,-0.6923828125,-0.0821533203125,0.,0.372802734375,-0.46923828125,0.,-0.620849609375,-0.4361572265625,0.093994140625,-0.632080078125,0.,0.,0.,-0.565185546875,0.,-0.2061767578125,0.1768798828125,0.,0.,0.212646484375,0.,0.42138671875,-0.3602294921875,0.,0.,0.,0.53955078125,0.,0.0291748046875,-0.09619140625,0.,0.,0.,-0.368408203125,0.,-0.4931640625,0.,0.,0.31494140625,0.,0.,0.,0.50732421875,0.,-0.036376953125,0.104248046875,-0.309814453125,-0.1263427734375,0.3050537109375,-0.1947021484375,-0.1219482421875,0.171875,0.553466796875,-0.0968017578125,0.,0.095703125,0.4632568359375,0.,0.,-1.0538330078125,0.4095458984375,0.,0.,0.482666015625,0.118896484375,-0.80029296875,0.358642578125,-0.165771484375,0.55615234375,0.2484130859375,0.,0.2828369140625,0.,0.3616943359375,0.2001953125,0.,-1.0703125,-0.048583984375,0.,-0.2418212890625,0.,0.,0.2086181640625,-0.2850341796875,0.,0.,0.205810546875,0.2037353515625,0.,-0.14404296875,-0.264404296875,0.,-0.2628173828125,0.0404052734375,0.0040283203125,0.0582275390625,-0.270263671875,0.,0.,0.7744140625,0.05810546875,0.631103515625,0.,-0.1527099609375,0.48974609375,0.,0.,0.24267578125,0.125732421875,-0.418701171875,0.2496337890625,-0.0411376953125,-0.381103515625,-0.9185791015625,-0.1390380859375,0.5792236328125,0.,-0.2081298828125,-0.00390625,0.6064453125,0.350830078125,0.138916015625,-0.192626953125,-0.26416015625,0.,-0.1959228515625,-0.0191650390625,0.939208984375,0.,0.,0.49609375,-0.389892578125,-0.2965087890625,-0.7894287109375,-0.2384033203125,0.,-0.016357421875,0.1824951171875,-0.1180419921875,0.2794189453125,0.7252197265625,0.,0.2174072265625,0.554443359375,-0.75048828125,-0.16064453125,0.3050537109375,-0.28369140625,0.,-0.142578125,-0.6024169921875,-0.5439453125,-0.1810302734375,-0.0216064453125,-0.3824462890625,0.,0.,-0.12646484375,0.82763671875,-1.049560546875,0.,0.,0.,0.50830078125,0.2333984375,-0.22900390625,0.22314453125,0.1026611328125,0.,0.412353515625,-0.2635498046875,0.,-0.18994140625,0.,0.1424560546875,0.5640869140625,0.,0.08984375,0.,0.,0.,0.248779296875,0.153076171875,-0.08447265625,0.,0.,0. };
static dense_biases_t dense5Biases[DENSE_5_OUTPUT_WIDTH] = {0.,0.1875,0.125,0.15625,-0.03125,-0.625,0.03125,0.28125,0.09375,0.21875,0.25,-0.125,-0.09375,0.03125,0.0625,-0.125 };
static dense_weight_t dense5Weights[DENSE_4_OUTPUT_WIDTH * DENSE_5_OUTPUT_WIDTH] = {0.,0.375,0.21875,0.,0.,0.,0.53125,0.,-0.34375,-0.21875,0.09375,-0.3125,0.,-0.15625,0.,0.0625,0.5625,-0.28125,0.,0.53125,0.3125,0.5625,0.,-0.46875,0.5,-0.09375,0.,-0.15625,-0.28125,0.,-0.15625,0.,0.3125,0.,0.,-0.125,0.,1.40625,-0.1875,0.6875,-0.40625,0.,-0.03125,0.59375,1.78125,0.,0.0625,0.15625,0.5,-0.1875,0.125,0.,0.84375,0.21875,-0.3125,-0.46875,0.,-0.1875,0.,0.34375,0.46875,0.15625,0.,0.,-0.4375,0.,-1.03125,0.,-0.5,-1.1875,0.5,-1.,0.21875,0.,0.,-0.71875,0.,0.5625,0.,-0.46875,-0.28125,0.,-0.40625,-0.40625,0.,0.,0.,0.,-0.15625,0.,0.3125,0.,0.25,0.,0.,0.,0.,-0.15625,-0.09375,0.,-0.5,-0.625,0.34375,-0.5,0.09375,0.,0.3125,-0.09375,-0.53125,0.,0.,0.21875,0.25,0.15625,0.3125,0.,0.4375,0.125,0.,0.,0.,0.,0.,0.,0.,0.,0.53125,0.125,0.,0.4375,0.,0.1875,0.1875,0.,0.5,0.09375,0.3125,0.,0.125,0.25,0.,0.,0.625,0.25,0.,0.,0.,0.,0.,0.21875,0.40625,0.28125,0.,0.,0.,0.15625,0.28125,-0.875,0.,0.09375,0.,0.40625,0.,0.25,0.34375,-0.09375,0.,0.3125,0.28125,0.53125,0.,0.,-0.28125,-0.625,0.,0.,0.,0.,-0.25,0.,0.,-0.15625,0.3125,0.,0.,0.59375,0.625,0.,0.,0.,0.25,0.28125,-0.53125,-0.40625,0.4375,0.15625,0.,0.75,0.,0.,0.,0.0625,0.28125,0.,0.28125,0.,0.,0.5625,0.09375,-0.625,0.,0.,0.,0.,-0.15625,-0.03125,0.,0.03125,0.,0.25,-0.4375,0.,0.75,0.0625,0.40625,0.,-0.40625,0.,0.125,0.,0.,0.5625,-0.375,0.,0.46875,0.40625,0.1875,0.,0.,0.,0.,0.,0.40625,0.,0.4375,0.,-0.1875,-0.09375,0.125,0.46875,-0.21875,0.1875,0.28125,-0.15625,0.34375,0.,-0.28125,0.,-0.25,0.53125,0.1875,-0.03125,-0.3125,0.,0.,0.,-0.09375,0.09375,-0.1875,-0.0625,0.3125,1.,-0.09375,0.,-0.375,0.,0.,-0.46875,0.,-0.53125,0.,0.,-0.03125,-1.28125,0.,0.4375,-0.15625,0.,0.,0.21875,0.,0.34375,0.,0.,0.,0.,0.,-0.5625,0.,0.,-0.375,0.375,-0.125,0.,0.15625,0.375,-0.34375,0.,0.,0.34375,-0.28125,0.,0.,0.375,0.25,0.4375,-0.46875,0.,0.09375,0.,0.4375,0.0625,-0.0625,0.25,0.0625,0.,0.,0.40625,0.,0.,0.46875,-0.40625,0.4375,-0.5,0.21875,-0.28125,0.09375,-0.46875,0.40625,0.,0.,-0.6875,0.15625,0.21875,0.625,0.15625,0.,-0.25,-0.15625,0.,0.09375,-0.03125,-0.5625,-0.53125,0.34375,0.40625,-0.25,0.,-0.28125,0.,0.40625,0.,0.,0.,0.5,0.,-0.5625,0.65625,0.,-0.375,-0.03125,0.,0.,0.,0.25,0.28125,-0.5,-0.15625,0.,0.75,0.5,0.,0.0625,0.,0.,0.375,-0.15625,0.,0.3125,0.,-0.28125,-0.46875,0.21875,0.,0.4375,-0.15625,0.,0.,-0.65625,0.,-0.34375,-0.15625,0.,-0.5,0.25,0.,0.21875,0.09375,0.09375,0.40625,0.,0.,0.,0.,0.,-0.15625,0.,0.,-0.1875,0.4375,-0.125,-0.1875,0.0625,0.,0.,0.,0.,0.,-0.21875,0.,-0.0625,-0.625,-0.15625,0.53125,0.625,0.,0.,0.5625,-0.40625,0.5,0.,0.,0.,0.1875,0.40625,0.,0.,0.375,0.,0.125,0.,-0.28125,-0.15625,0.40625,0.,0.75,-0.0625,0.,-0.21875,0.84375,1.21875,-0.46875,0.03125,-0.1875,-0.15625,-0.3125,-0.28125,0.,0.28125,0.,-0.09375,-0.5625,0.,0.,-0.34375,-0.1875,0.,0.59375,0.,0.,0.,0.,-0.21875,0.34375,0.,0.,0.0625,0.53125,0.0625,0.,-0.4375,0.,0.28125,-0.15625,0.0625,0.3125,-0.34375,0.5,0.,0.5,0.,0.,0.25,0.1875,0.,-0.34375,0.,0.625,0.1875,0.,-0.1875,-0.75 };
static dense_biases_t dense6Biases[DENSE_6_OUTPUT_WIDTH] = {0.,0.09375,0.125,-0.0625,0.15625,0.28125,0.25,0.25,0.21875,0.28125,0.,0.25,0.34375,0.,-0.0625,-0.03125 };
static dense_weight_t dense6Weights[DENSE_5_OUTPUT_WIDTH * DENSE_6_OUTPUT_WIDTH] = {-0.0625,0.0625,-0.09375,0.,0.,-0.21875,0.6875,0.0625,0.,0.,0.21875,0.,-0.21875,-0.0625,-0.40625,0.0625,0.4375,0.40625,0.40625,0.,-0.09375,0.40625,0.,0.09375,0.90625,0.,0.,0.,0.375,-0.5,0.,0.09375,0.,0.,0.21875,0.,-1.625,0.,-0.25,0.,0.,0.,-0.65625,0.,0.,0.28125,0.5,0.03125,0.,0.46875,0.46875,0.,0.28125,-0.40625,-0.1875,0.,0.,0.21875,-0.625,0.,0.,-0.1875,0.,0.25,0.3125,0.,0.,-0.25,0.4375,0.,0.,0.125,-0.34375,-0.3125,0.,0.,0.34375,-0.4375,-0.65625,0.625,0.,0.03125,0.,0.03125,-3.96875,1.15625,0.0625,0.375,0.,0.03125,0.,-2.4375,0.,0.,-0.28125,-0.40625,0.,0.,0.,0.,0.84375,0.,0.75,-0.28125,0.,0.5,0.21875,0.40625,-0.53125,0.4375,-0.28125,0.,0.25,-0.1875,-0.21875,0.,-0.40625,-0.375,0.,1.03125,-0.09375,0.,0.,0.,0.,0.,-0.59375,0.5,0.,-0.5625,0.,0.59375,-0.25,0.65625,-0.53125,0.,-0.5625,0.,0.40625,0.25,-0.5625,0.,0.40625,-0.5625,0.5625,0.375,-0.28125,0.90625,0.,0.,0.,-0.21875,0.59375,-0.03125,-0.34375,-0.40625,0.6875,0.,0.,0.53125,-0.21875,-0.59375,0.,0.34375,0.,0.,0.,0.,0.,0.65625,-0.21875,-0.21875,-0.375,0.,-0.3125,-0.21875,0.375,0.,0.1875,-0.09375,0.,0.3125,-0.28125,0.5625,0.,0.,0.40625,0.5,-0.59375,1.125,-0.28125,0.40625,-0.53125,0.,-0.09375,0.,-0.4375,0.5625,0.75,-0.375,0.,0.,0.,-0.5625,0.34375,0.75,-0.3125,-0.21875,0.,0.,0.15625,0.03125,0.,0.,0.4375,-0.59375,0.25,0.,0.,0.,-0.28125,0.,0.,0.,0.,0.15625,0.,0.,0.,0.,-0.28125,0.,0.40625,-0.625,-0.46875,-0.625,0.,0.,-0.25,0.,0.03125,0.15625,0.40625,-0.40625,0.,1.03125,0.21875,-0.1875,0.,0.,0.,-0.0625,0.,-0.75,-0.3125,0. };
static gravnet_biases_t dense7Biases[DENSE_7_OUTPUT_WIDTH] = {-0.1204833984375,0.029296875,0.0048828125,-0.0767822265625,-0.000732421875,-0.03857421875 };
static gravnet_weight_t dense7Weights[DENSE_6_OUTPUT_WIDTH * DENSE_7_OUTPUT_WIDTH] = {0.,0.,0.,0.0618896484375,-0.0782470703125,0.107177734375,0.,0.,0.,0.,0.089111328125,0.1405029296875,0.05078125,-0.0584716796875,0.1148681640625,-0.093017578125,0.,0.047119140625,0.01123046875,-0.05029296875,-0.1004638671875,0.,0.09912109375,-0.1409912109375,0.,0.,0.,0.,-0.0018310546875,0.,0.,0.,0.0360107421875,0.011474609375,-0.0611572265625,0.0322265625,0.,0.05859375,-0.045654296875,0.,0.,0.024169921875,0.004638671875,0.,-0.0992431640625,-0.0255126953125,0.159423828125,0.,0.1260986328125,0.,-0.116943359375,0.0513916015625,-0.0955810546875,0.037109375,0.14794921875,0.,0.,-0.1341552734375,-0.0330810546875,0.,-0.281494140625,0.2596435546875,0.546142578125,-0.4002685546875,0.23876953125,-0.3018798828125,0.0179443359375,0.,0.,0.,0.,0.,0.,0.,0.,0.045654296875,-0.067626953125,0.,-0.0399169921875,0.0059814453125,0.,-0.007568359375,0.,0.,-0.7413330078125,-0.1007080078125,-0.4400634765625,-0.493408203125,-0.3773193359375,-0.4459228515625,0.01806640625,0.,0.1561279296875,0.04296875,-0.1390380859375,-0.0843505859375 };
static gravnet_biases_t dense8Biases[DENSE_8_OUTPUT_WIDTH] = {0.350830078125,-0.0550537109375,0.5767822265625,0.4556884765625,0.151123046875,0.3482666015625,-0.1270751953125,0.0404052734375 };
static gravnet_weight_t dense8Weights[DENSE_6_OUTPUT_WIDTH * DENSE_8_OUTPUT_WIDTH] = {0.,-0.365478515625,-0.23193359375,0.,0.,0.,0.,-0.906494140625,0.,0.8602294921875,0.0450439453125,0.2127685546875,0.,0.,-0.179443359375,-0.5269775390625,0.,0.,0.914794921875,0.,0.,0.5640869140625,-0.0738525390625,-0.3216552734375,0.,-0.214599609375,0.3349609375,0.716796875,-0.2740478515625,0.7877197265625,0.,0.00927734375,-0.1417236328125,0.,-0.23583984375,0.085693359375,-0.9744873046875,0.,-1.8602294921875,-2.8089599609375,0.,0.464111328125,0.1531982421875,-0.797119140625,-1.4219970703125,-1.028076171875,-0.3394775390625,0.,0.,-0.2615966796875,-0.51318359375,-0.353515625,0.,-0.288330078125,-0.4979248046875,-2.197509765625,-0.5360107421875,0.,-0.642333984375,-0.543212890625,0.2454833984375,0.31982421875,0.7117919921875,0.,-0.28271484375,0.702880859375,0.3658447265625,0.760009765625,0.1651611328125,0.,0.,0.,0.,0.,0.,0.,0.,0.,0.1121826171875,0.,-0.4837646484375,-0.2911376953125,0.,-0.395751953125,0.4385986328125,-0.5621337890625,0.,0.,0.,0.,0.,0.2056884765625,0.,0.1802978515625,0.1590576171875,-2.0740966796875,0.3848876953125,0.74658203125,0.1065673828125,0.,0.,0.,0.,-0.3253173828125,0.,-1.04345703125,-1.7064208984375,-1.229736328125,-0.2252197265625,-0.842041015625,-1.0443115234375,0.7896728515625,0.,0.,0.,0.4381103515625,-0.307373046875,0.,0.,0.41064453125,0.6361083984375,0.0421142578125,-0.27197265625,0.,0.655029296875,0.,0.499755859375,-0.6746826171875 };
static gravnet_biases_t dense9Biases[DENSE_9_OUTPUT_WIDTH] = {0.0037841796875,0.0152587890625,0.01171875,0.25390625,-0.01611328125,-0.110107421875,-0.0885009765625,0.1192626953125,0.1248779296875,-0.1041259765625,0.4635009765625,0.1201171875,0.3798828125,0.07958984375,-0.266845703125,-0.0965576171875,-0.0303955078125,0.162353515625,-0.0911865234375,-0.0054931640625,-0.025146484375,-0.2896728515625,-0.055419921875,0.103515625,-0.223876953125,-0.007568359375,0.1298828125,0.010009765625,0.1368408203125,0.0533447265625,0.292236328125,-0.1737060546875 };
static gravnet_weight_t dense9Weights[GRAVNET_2_OUTPUT_WIDTH * DENSE_9_OUTPUT_WIDTH] = {-0.3502197265625,-0.4927978515625,0.,-0.084716796875,0.,0.365234375,0.5875244140625,0.328369140625,0.2412109375,-0.3631591796875,0.,0.2081298828125,-0.2822265625,0.,-0.0517578125,0.,0.162353515625,0.,0.3638916015625,0.0908203125,0.,-0.10498046875,0.2352294921875,-0.2471923828125,0.,-0.5078125,-0.3310546875,0.,0.,0.,0.,0.2093505859375,0.,0.4208984375,0.2235107421875,0.1397705078125,0.,0.1318359375,0.,0.27587890625,0.100830078125,0.2010498046875,0.,0.099853515625,0.,0.154541015625,0.,0.,0.,0.1427001953125,0.,0.2152099609375,-0.3924560546875,0.398193359375,0.,0.,-0.0869140625,0.,-0.0289306640625,0.2667236328125,0.1856689453125,-0.60107421875,0.,0.,0.,0.,0.190185546875,0.094482421875,0.,0.,0.,-0.198974609375,0.,-0.0848388671875,-0.4154052734375,0.2650146484375,0.,-0.33203125,-0.39501953125,0.,0.,0.295654296875,0.,-0.4847412109375,-0.27197265625,0.,0.,0.29833984375,-0.176025390625,0.,-0.142578125,-0.042724609375,0.,-0.12939453125,-0.433349609375,0.237060546875,0.,0.,0.,-0.160400390625,0.,0.,-0.026123046875,0.,-0.3248291015625,0.2796630859375,0.0679931640625,0.,0.,0.11328125,0.,0.1954345703125,-0.3680419921875,0.,0.,0.,-0.327392578125,0.388916015625,0.2061767578125,0.,0.,-0.26611328125,0.,0.282958984375,0.,0.,0.,0.,0.,0.3907470703125,-0.1668701171875,-0.121826171875,0.,0.391357421875,0.1356201171875,0.,0.,0.,0.275390625,-0.356201171875,-0.135009765625,0.097412109375,-0.90380859375,0.,0.,0.138916015625,0.,0.,0.147705078125,0.,-0.2705078125,-0.05712890625,-0.1541748046875,0.,0.2327880859375,-0.1209716796875,0.,0.,0.,-0.0946044921875,0.,0.,0.,0.1800537109375,0.,0.,0.,-0.1737060546875,0.,0.,-0.326171875,0.,0.,0.,-0.6585693359375,0.,0.,0.,0.,-0.1138916015625,-0.5687255859375,-0.12353515625,-0.3604736328125,0.,-0.3426513671875,-0.1929931640625,0.201171875,0.,0.,-0.4473876953125,-0.1568603515625,0.,0.1334228515625,0.133056640625,0.6982421875,0.3096923828125,-0.4537353515625,-0.5355224609375,0.,0.,0.0235595703125,-0.3951416015625,0.,0.,-0.51416015625,0.115966796875,0.,0.,-0.1505126953125,-0.1678466796875,0.,0.,-0.4385986328125,-0.068603515625,-0.4580078125,-0.3267822265625,0.,0.4114990234375,0.521728515625,-0.1253662109375,-0.490478515625,0.3299560546875,0.,0.,0.,0.,0.,0.451171875,0.4716796875,-0.551025390625,-0.377685546875,-0.1729736328125,0.,0.,0.290283203125,0.,0.1749267578125,-0.1097412109375,0.91015625,0.376708984375,-0.489501953125,0.1259765625,0.,0.,0.,0.2198486328125,0.3402099609375,0.,-0.015869140625,0.3299560546875,0.,0.162109375,-0.758056640625,0.2840576171875,0.3345947265625,0.187255859375,0.3228759765625,0.,0.,0.,0.12158203125,0.,0.,0.3199462890625,-0.4075927734375,0.26953125,0.,0.0806884765625,-0.3018798828125,-0.478271484375,-0.201904296875,0.,-0.33447265625,0.,0.,0.446533203125,0.,-0.1639404296875,0.,0.,0.1719970703125,-0.215576171875,0.,-0.1531982421875,0.168212890625,-0.3978271484375,-0.15576171875,0.2156982421875,0.1385498046875,0.,0.,0.,0.,0.115234375,0.,0.188232421875,0.,-0.0968017578125,-0.2913818359375,0.1005859375,0.,0.3707275390625,0.,0.,0.,0.,0.,-0.3546142578125,-0.234619140625,0.,0.,0.,0.,0.072998046875,0.,0.,0.,0.1220703125,-0.2528076171875,0.,0.345458984375,0.28564453125,0.,-0.2275390625,0.,-0.1876220703125,-0.2926025390625,0.,-0.3419189453125,0.,0.30908203125,0.,0.5545654296875,0.,0.,0.39013671875,0.,-0.3978271484375,-0.218505859375,0.,0.1497802734375,0.152099609375,-0.1878662109375,-0.464111328125,0.,-0.284912109375,-0.2333984375,0.,0.,-0.1917724609375,0.,0.,0.,0.,0.,-0.1285400390625,0.403564453125,0.47314453125,0.3243408203125,-0.1451416015625,0.,-0.4432373046875,0.037353515625,0.2152099609375,0.2327880859375,0.,0.,0.0809326171875,-0.321044921875,0.,0.,0.1842041015625,0.235595703125,0.,0.,0.0252685546875,0.2236328125,0.3931884765625,0.233154296875,0.,-0.088134765625,0.,-0.0777587890625,0.,-0.16943359375,0.,0.,0.,-0.4010009765625,0.,0.1761474609375,0.,0.,0.261962890625,0.34423828125,0.,-0.0880126953125,-0.094970703125,0.,0.,0.,-0.2626953125,0.,0.,0.2076416015625,0.3388671875,0.,-0.2083740234375,0.1131591796875,0.6990966796875,0.096435546875,0.,0.058837890625,-0.3076171875,0.0096435546875,0.,0.,0.,0.143310546875,-0.3404541015625,-1.088623046875,-1.1466064453125,0.2427978515625,0.,0.,-0.9603271484375,0.017333984375,0.,0.,0.,0.004150390625,0.,0.4031982421875,0.0428466796875,-0.0419921875,-0.1876220703125,0.,0.,0.4404296875,0.,-1.0335693359375,-0.176513671875,0.079345703125,0.,-0.5311279296875,0.,0.,0.,-0.1573486328125,-0.236572265625,0.,0.27734375,0.,0.,0.,0.1632080078125,0.,0.,0.,-0.3404541015625,-0.2926025390625,0.,0.2828369140625,0.,0.,-0.1898193359375,0.,0.,-0.265380859375,0.390625,0.,0.206787109375,0.3935546875,0.500732421875,0.,-0.28564453125,0.,-0.197509765625,-0.30322265625,0.,0.,0.,0.07080078125,0.,-0.8857421875,-0.2054443359375,0.,-0.231201171875,0.,0.,-0.312255859375,0.1640625,0.,-0.1199951171875,0.2684326171875,0.,-0.1654052734375,0.,0.,0.,-0.405517578125,-0.3138427734375,0.086181640625,-0.3359375,0.,0.399169921875,0.,0.,-0.038330078125,0.317626953125,0.,0.1434326171875,0.351806640625,-0.046875,0.1202392578125,0.3685302734375,0.24755859375,0.0086669921875,0.396240234375,-0.6739501953125,0.,0.7952880859375,0.,0.,0.8463134765625,0.4593505859375,0.,-0.6009521484375,-0.406005859375,0.,0.7879638671875,0.5948486328125,0.,0.,0.,0.4375,0.,-0.091552734375,0.,0.,-0.054931640625,0.1005859375,0.002685546875,0.,0.,1.079345703125,-0.01953125,-0.569091796875,1.083740234375,-0.2393798828125,0.,-0.0460205078125,-0.1414794921875,0.,-0.19384765625,0.463623046875,-0.119140625,-0.1973876953125,0.,0.0311279296875,0.2608642578125,-0.0489501953125,0.,-0.4007568359375,0.,0.,0.3594970703125,0.1746826171875,0.3321533203125,-0.1036376953125,0.,0.8057861328125,0.175537109375,0.,0.,-1.354736328125,0.3355712890625,-0.299072265625,-0.6754150390625,0.5535888671875,-0.2445068359375,1.085205078125,0.5494384765625,0.,-0.0792236328125,-0.068603515625,0.435791015625,-0.556884765625,-0.436279296875,0.7855224609375,-0.003173828125,0.,-0.1915283203125,-0.1685791015625,0.,0.99267578125,-0.4647216796875,-0.730712890625,0.,-0.4468994140625,-0.976318359375,-0.37939453125,-0.711669921875,0.4287109375,1.26171875,-0.03662109375,0.0889892578125,-0.0748291015625,-0.0384521484375,0.0419921875,0.087646484375,0.6707763671875,1.0870361328125,0.2994384765625,0.,0.,-0.1036376953125,0.,0.,0.7645263671875,-0.0675048828125,0.,0.5526123046875,-0.5531005859375,0.,0.,0.373779296875,0.,0.,0.53564453125,0.171142578125,-0.80322265625,0.8419189453125,0.546630859375,0.,0.0609130859375,-0.6639404296875,-0.1561279296875,0.,0.8525390625,0.274658203125,-3.4556884765625,0.,0.,0.,0.,0.5472412109375,0.,-0.7283935546875,0.,0.,0.,0.585693359375,0.4814453125,-0.0362548828125,0.,0.38623046875,0.,0.2451171875,0.,0.,0.4234619140625,0.30517578125,-0.73388671875,1.810791015625,-1.0965576171875,0.90966796875,-0.3165283203125,0.5966796875,0.2503662109375,0.2115478515625,0.,0.3211669921875,0.,0.8648681640625,0.,-0.552490234375,0.,0.0460205078125,-0.2210693359375,0.0008544921875,0.562255859375,0.,0.,0.10546875,0.010009765625,0.,-0.375,0.302001953125,-0.1702880859375,0.,0.,0.2216796875,-0.638671875,0.,0.6348876953125,-0.47314453125,-0.4051513671875,0.,0.3330078125,0.41650390625,0.0189208984375,0.0635986328125,0.3414306640625,-0.8470458984375,1.2357177734375,0.,0.3460693359375,0.42578125,0.6993408203125,0.457763671875,-0.7603759765625,0.5550537109375,0.3062744140625,0.,0.,0.,-0.4805908203125,-0.5439453125,-0.4715576171875,0.,0.,-0.07763671875,-0.4423828125,-0.302490234375,0.,-0.4910888671875,0.,0.,0.8675537109375,-0.078857421875,0.,-0.581787109375,-0.5167236328125,-0.780517578125,-0.2357177734375,0.,0.0997314453125,0.1158447265625,0.,0.05908203125,0.,0.,0.,0.0277099609375,0.,-0.213623046875,0.,0.,-0.853759765625,-0.353759765625,0.,0.2991943359375,0.4439697265625,-0.17041015625,-0.431396484375,-0.137451171875,0.,0.068115234375,0.,0.,0.,0.,0.,0.0465087890625,-0.498779296875,-0.2410888671875,-0.4832763671875,1.0238037109375,-0.2354736328125,0.,0.0576171875,1.398681640625,-0.5767822265625,-0.4290771484375,0.,0.,0.,0.,0.,-0.1622314453125,0.0902099609375,0.389892578125,0.,0.43994140625,0.556884765625,0.21630859375,0.,0.2877197265625,-0.7518310546875,-0.03125,-0.029541015625,0.6661376953125,-0.0791015625,0.,-0.6041259765625,-0.4552001953125,0.,0.5223388671875,0.2451171875,0.,0.,0.,0.,-0.231201171875,0.,-0.4805908203125,-0.3687744140625,0.,-0.0560302734375,0.,0.20947265625,0.185546875,0.5152587890625,0.,0.,0.,-0.2198486328125,0.,0.,0.,-0.233154296875,0.,0.3779296875,0.0284423828125,-0.8367919921875,0.0753173828125,0.429931640625,-0.237060546875,0.,0.244873046875,0.,0.,0.820556640625,0.,-0.6287841796875,-0.6357421875,0.,0.2408447265625,0.399658203125,0.3465576171875,0.1739501953125,0.,-0.18115234375,-0.1182861328125,0.1541748046875,0.8885498046875,-0.4530029296875,0.5460205078125,0.,0.,0.4180908203125,0.1678466796875,-0.0126953125,0.15185546875,0.1326904296875,0.,0.,-0.2015380859375,0.8870849609375,1.0892333984375,0.678955078125,0.,0.632080078125,0.,0.2821044921875,0.,-0.11669921875,0.14599609375,-0.7059326171875,0.1226806640625,0.0274658203125,1.403564453125,0.,0.,0.188232421875,-0.048828125,-0.3499755859375,0.20458984375,-0.0941162109375,-0.20556640625,0.5128173828125,0.,-0.2506103515625,0.,0.03759765625,0.3172607421875,-0.1654052734375,-0.185791015625,0.90966796875,0.,0.,-0.7119140625,0.,0.9293212890625,0.,-0.1217041015625,-0.32470703125,0.,0.4403076171875,-0.479248046875,-0.291748046875,0.,0.330078125,-0.3126220703125,0.,-0.95703125,-0.3206787109375,0.,0.0836181640625,0.,0.,-0.2156982421875,0.,0.5103759765625,0.,0.,1.06591796875,0.247314453125,-0.0850830078125,-0.2359619140625,0.,0.,-0.1749267578125,-0.43994140625,0.1260986328125,0.0015869140625,0.,0.,-0.83837890625,0.,0.4029541015625,-0.067138671875,-0.3729248046875,0.0970458984375,0.,-0.3968505859375,-0.0386962890625,0.110107421875,0.,0.,0.325439453125,-0.3175048828125,0.,-0.2713623046875,0.,0.,0.704833984375,0.291015625,0.,0.,0.1463623046875,1.009521484375,-0.6671142578125,0.,-0.135986328125,-0.252197265625,0.,0.,-0.22265625,0.,0.,-0.19775390625,0.2083740234375,0.,0.2257080078125,-0.16357421875,0.39404296875,0.43896484375,0.343017578125,0.,0.,0.,-0.18798828125,-0.57177734375,0.,0.,-0.1246337890625,0.,0.,0.182373046875,0.,-0.6666259765625,0.,0.,0.321044921875,0.3822021484375,-0.6795654296875,-1.055419921875,0.6492919921875,0.080810546875,-0.853515625,-0.3101806640625,0.133544921875,-0.2169189453125,0.,-1.1103515625,0.33203125,-0.1727294921875,-0.4266357421875,0.355712890625,0.18896484375,0.,0.,0.3504638671875,0.16748046875,0.9635009765625,0.4139404296875,0.,-0.64306640625,-0.268798828125,0.5762939453125,0.,-0.2569580078125,0.065185546875,0.1663818359375,3.9998779296875,0.1475830078125,0.22314453125,-0.181884765625,-1.234619140625,0.,0.1102294921875,0. };
static dense_biases_t denseScaleBiases[DENSE_SCALE_OUTPUT_WIDTH] = {0.0625,0.1875,-0.15625,-0.21875,-0.0625 };
static dense_weight_t denseScaleWeights[DENSE_SCALE_OUTPUT_WIDTH * MODEL_INPUT_WIDTH] = {0.,0.,0.,0.,0.,0.,0.,0.03125,0.15625,0.,-0.625,-0.90625,0.,0.,0.65625,-0.96875,0.,0.59375,0.,1.09375,0.71875,-0.03125,0.3125,0.46875,-0.8125 };
static dense_biases_t dense10Biases[DENSE_10_OUTPUT_WIDTH] = {0.09375,0.28125,0.09375,0.0625,0.,0.0625,0.1875,-0.09375,0.3125,0.15625,0.25,-0.125,0.,0.3125,-0.0625,0.125 };
static dense_weight_t dense10Weights[DENSE_9_OUTPUT_WIDTH * DENSE_10_OUTPUT_WIDTH] = {0.,0.0625,0.,-0.15625,0.34375,-0.0625,0.15625,-0.1875,0.25,-0.53125,-0.40625,-0.09375,0.,0.,-0.3125,0.375,0.125,-1.78125,0.,0.,-0.15625,-0.03125,0.34375,-0.34375,0.,0.1875,-0.28125,-0.1875,-0.65625,0.375,0.125,-0.4375,0.,-0.96875,0.,0.03125,0.,-0.46875,-0.15625,-0.09375,-0.4375,-0.375,0.,-0.34375,0.,0.21875,0.,0.15625,-0.40625,0.34375,0.125,0.,-0.0625,-0.4375,0.53125,0.15625,0.,0.34375,-0.21875,0.,0.03125,0.,0.,0.,0.6875,0.34375,-0.59375,0.,0.,-0.1875,-0.21875,0.,0.,-0.0625,0.65625,-0.15625,0.3125,0.125,-0.1875,-0.28125,0.,0.,0.,-0.3125,0.09375,0.59375,0.,0.25,0.625,0.,0.,-0.125,0.,-1.90625,0.5625,-0.46875,-0.125,-1.1875,-0.03125,0.,0.,0.8125,0.,0.28125,-0.40625,0.,0.125,0.,0.,0.,0.28125,0.40625,-0.28125,-0.0625,0.21875,0.09375,0.5625,0.,0.,0.3125,-0.34375,0.34375,0.,0.,0.,0.1875,0.,0.,1.09375,-0.15625,0.,-0.375,0.,0.,-0.15625,-0.15625,-0.34375,0.625,-0.28125,0.875,-0.78125,0.09375,0.03125,0.,0.,0.0625,0.,-0.125,0.3125,0.,-0.34375,-0.09375,0.28125,-0.28125,-0.15625,-0.40625,0.53125,0.28125,0.15625,-0.25,0.,1.6875,0.5625,0.,-0.25,0.28125,0.0625,0.28125,0.1875,0.,0.,0.,0.,0.09375,0.09375,0.,0.,-0.125,0.,0.,0.,0.,0.21875,0.,0.375,0.375,0.03125,0.,-0.4375,0.,-0.15625,0.40625,0.,-1.625,0.1875,0.,0.,0.5625,0.375,0.5625,0.,0.,0.,0.,0.,0.09375,0.,0.,0.1875,-0.53125,0.125,0.,-0.375,-0.5,0.,0.,0.34375,0.,0.,-0.09375,0.,0.21875,0.,0.,0.21875,0.375,0.03125,0.,0.,-0.8125,0.,0.21875,0.,-0.3125,0.5625,0.,-1.09375,0.96875,0.,0.625,0.,0.,0.,-0.5625,0.,0.,-0.375,0.,0.21875,0.,0.,0.,0.21875,-0.28125,0.34375,0.,0.,0.,0.,-0.15625,-0.1875,0.,-0.21875,-0.375,-0.3125,0.,0.,0.,-0.34375,0.28125,0.15625,-0.21875,-0.09375,-0.15625,-0.4375,0.3125,0.,0.46875,0.,0.,0.0625,0.15625,0.,0.,0.28125,0.,0.53125,0.,-0.53125,-0.40625,-0.03125,0.40625,0.,-0.125,0.,0.28125,0.,0.,-0.53125,0.,0.,0.,0.21875,0.,0.46875,-1.28125,0.,0.,0.21875,0.,0.34375,0.,-0.15625,-0.4375,0.,-0.1875,0.,0.,0.,0.,0.,-0.21875,-0.28125,-0.4375,0.,0.21875,0.,-0.15625,0.40625,0.,-0.625,0.,0.,0.,-0.3125,0.15625,0.15625,0.,-0.40625,0.03125,0.40625,0.40625,0.1875,0.,-0.5,0.,-0.46875,0.,0.,0.09375,-0.09375,-0.34375,-0.09375,0.,0.,0.,-0.15625,-0.59375,0.,-0.53125,-0.40625,0.125,0.,0.,-0.03125,0.,-0.46875,0.,0.,0.15625,0.0625,0.,0.28125,0.,0.,0.,0.,0.,0.,0.,-0.40625,0.,0.,0.3125,-1.5,-0.1875,1.3125,0.53125,0.,-0.125,1.09375,-0.46875,0.28125,0.9375,0.15625,-1.125,-0.21875,0.,-0.53125,-0.15625,0.09375,1.34375,-0.03125,0.,0.09375,-0.25,0.,0.3125,0.4375,-0.40625,0.,-0.1875,0.4375,-0.09375,0.34375,0.,0.,0.,0.25,0.,0.40625,-0.40625,0.28125,0.,0.,0.,0.,0.,0.375,0.21875,0.,0.,0.125,0.46875,0.1875,0.,-0.25,0.28125,-0.21875,0.,0.1875,-0.21875,0.,0.53125,0.,-0.34375,0.,0.,0.,-0.25,0.46875,0.,0.15625,-0.03125,0.,0.28125,0.28125,0.21875,0.,-0.125,0.3125,-1.5,0.,-0.21875,0.0625,-0.1875,0.,0.125,0.,-0.875,-0.28125,0.,0.,0.375,0.28125,-0.09375,0.,0.09375,-0.125,0.,0.,0.,0.25,0.3125,0.,-1.,-0.21875,0.,0.,0.,0.28125,0.09375,0.,0.,-0.125,0.,0.,-0.375,-0.125,0.09375,0.40625,-0.28125,0.34375,0.3125,0.,-0.21875,0.,0.5,-0.40625,0.,0.3125,0. };
static dense_biases_t dense11Biases[DENSE_11_OUTPUT_WIDTH] = {-0.03125,0.1875,0.3125,0.09375,0.3125,0.53125,-0.65625,0.1875,0.0625,-0.09375,0.0625,0.1875,0.25,0.125,-0.0625,-0.125 };
static dense_weight_t dense11Weights[(MODEL_INPUT_WIDTH+DENSE_5_OUTPUT_WIDTH+DENSE_10_OUTPUT_WIDTH) * DENSE_11_OUTPUT_WIDTH] = {0.,-0.21875,0.28125,0.,0.3125,0.,-0.21875,0.,-0.6875,0.,0.3125,-0.375,-0.5,0.,0.,0.46875,0.,0.,0.15625,0.,-0.34375,0.46875,0.625,0.59375,0.0625,0.,0.09375,-0.09375,0.,-0.1875,0.1875,0.,-0.59375,0.,0.28125,0.,-0.28125,0.3125,0.59375,0.,0.28125,0.,0.,0.,0.,0.,-0.34375,0.,-0.3125,0.,0.,-0.8125,0.,0.,1.375,0.,-0.125,0.,0.,0.09375,0.,0.,0.3125,0.,0.,0.,0.1875,0.,-0.21875,0.,0.09375,0.53125,0.,0.78125,0.,0.65625,0.,0.,0.,0.,-0.15625,0.25,-0.09375,-0.25,0.,0.,0.8125,0.4375,-0.65625,0.,-0.78125,0.28125,0.34375,0.,0.,0.5,-0.125,0.28125,0.1875,0.25,0.,0.15625,-0.46875,-0.25,0.59375,0.,0.,0.125,0.,0.375,-0.21875,0.53125,0.3125,-0.0625,0.,0.59375,0.,0.,0.,0.,0.03125,0.,0.,-0.09375,0.1875,0.28125,-0.21875,-0.40625,0.,-0.625,0.3125,0.,-0.21875,0.34375,-0.46875,0.,0.,0.34375,0.,0.28125,0.46875,0.,-0.4375,0.21875,0.,0.25,-0.03125,0.,0.,0.,-0.5625,0.59375,-0.25,-0.34375,-0.15625,-0.3125,0.,0.,-0.3125,0.40625,0.,0.25,0.,0.,-1.4375,-1.1875,-1.5625,0.,-0.125,0.0625,0.34375,0.28125,-0.9375,0.78125,0.375,0.5625,-0.59375,0.5,-0.15625,0.,0.,0.75,-0.25,0.,0.21875,0.28125,0.625,0.15625,0.28125,0.,-0.1875,0.,0.,-0.09375,0.,0.65625,0.40625,0.,1.375,0.,0.,0.,-0.5,0.,0.,0.3125,0.,-0.375,-0.53125,0.40625,0.46875,-0.125,0.,0.,-1.53125,0.,-0.3125,0.,0.,0.21875,0.,0.,0.1875,0.21875,-0.0625,0.8125,0.,0.,0.375,0.,0.,0.,-0.4375,0.,0.,-0.28125,0.25,0.46875,0.,-0.15625,0.,0.5,-0.25,0.,0.46875,0.15625,0.,0.,0.21875,0.21875,0.,0.75,-0.28125,0.03125,-0.25,0.,0.625,0.,-0.09375,0.4375,0.,-0.5625,1.21875,0.,0.25,-0.3125,-0.375,0.,0.,0.21875,0.,0.,0.40625,0.,-0.15625,-0.25,0.,0.,1.03125,-0.375,-0.34375,0.9375,0.625,-0.65625,0.3125,0.65625,0.15625,-0.3125,0.0625,0.,0.,0.,0.,0.5,-3.96875,0.,-0.0625,0.,0.,0.,0.,0.,0.,0.,-0.3125,0.,-0.3125,0.,0.09375,0.,0.5625,0.65625,-0.09375,0.,0.,0.,0.0625,0.,-0.3125,0.,-0.875,0.,0.,0.125,0.,0.,-3.875,0.,0.53125,0.84375,0.,-0.59375,0.,0.,0.,-0.28125,-0.40625,0.,0.1875,-0.46875,0.,-0.375,0.78125,0.,0.,0.25,0.3125,0.,-0.125,-0.28125,0.15625,-0.03125,1.90625,-0.9375,0.,-0.1875,-0.34375,-0.3125,0.03125,0.,-0.875,-1.03125,-0.28125,0.28125,0.,-1.25,0.3125,0.,0.,0.25,0.53125,0.,-0.0625,0.25,-0.3125,0.125,0.53125,0.25,0.375,0.,-0.59375,-0.21875,0.,-0.25,0.5,0.15625,0.0625,0.,0.,0.,0.,0.03125,-0.5625,0.15625,-0.25,-0.09375,0.,0.8125,0.,0.,0.0625,0.,0.,-0.84375,0.53125,0.3125,-0.9375,-0.125,-0.25,0.,0.,0.,0.,-0.5625,0.,0.34375,-0.28125,0.3125,0.40625,0.,-0.25,0.875,-0.46875,-0.1875,0.,0.,0.75,0.,0.,-0.40625,0.,0.,-0.53125,0.,0.,0.,0.59375,0.1875,0.,0.21875,-0.125,0.,0.,0.,0.5,0.125,0.,0.25,0.,0.34375,0.,0.,-0.125,0.34375,-0.1875,0.09375,0.25,-0.15625,0.25,0.,-0.21875,0.,-0.3125,0.,-0.53125,0.,0.21875,0.,0.25,0.3125,0.21875,0.21875,-0.28125,0.1875,0.59375,0.40625,0.,0.15625,-0.46875,0.,0.,-0.15625,0.34375,-0.40625,0.28125,0.,0.,-0.1875,0.,-0.15625,0.59375,0.,0.40625,0.,0.15625,0.,1.25,0.,0.,0.,0.,-0.46875,0.3125,0.09375,0.,0.,0.,-0.0625,0.15625,0.3125,0.3125,0.,0.03125,0.,0.,-0.34375,-0.125,-0.21875,-1.53125,0.,0.,0.,-0.09375,0.,0.,0.,-0.1875,0.28125,-1.46875,0.28125,0.15625,0.,0.,0.46875,-1.75,-0.09375,0.,-0.28125,0.1875,0.,0.03125,-0.125,-0.1875,0.,0.84375,0.,0.,0.,0.,-1.375,0.65625,0.1875,0.3125,-0.125,0.,0.1875,0.,1.40625,-0.25,0.15625,-0.375,0.40625,0.21875,0.,-0.3125,0.625,-0.65625,0.,0.0625,0.,0.34375,0.,0.25,-0.28125,0.,0.46875,0.,0.,-0.25,0.,0.4375,-0.5625,0.4375,0.4375,-0.40625,0.21875,0.1875,0.46875,0.,0.5625,-0.25,0.09375 };
static tpos_biases_t tposBiases[TPOS_WIDTH] = {-0.06005859375,-0.09033203125,-0.06689453125 };
static tpos_weight_t tposWeights[DENSE_11_OUTPUT_WIDTH * TPOS_WIDTH] = {-0.07958984375,0.037109375,0.,-0.61474609375,0.,0.,0.,0.2890625,-0.12744140625,0.1103515625,-0.181640625,0.0302734375,0.,-0.4189453125,0.18408203125,0.26953125,0.,0.,0.04833984375,0.,0.,-0.23046875,0.1455078125,-0.509765625,-0.00341796875,-0.05224609375,0.,0.,0.21142578125,0.18212890625,0.,-0.21728515625,0.,0.,0.23388671875,0.59228515625,-0.04541015625,0.48486328125,-0.07763671875,0.25146484375,0.,0.,-0.3564453125,0.,0.,0.4833984375,-0.36376953125,0. };
static ccoords_biases_t ccordsBiases[CCORDS_WIDTH] = {0.,0.0009765625,0. };
static ccoords_weight_t ccordsWeights[DENSE_11_OUTPUT_WIDTH * CCORDS_WIDTH] = {0.,0.,0.64599609375,1.578125,0.56689453125,0.,0.2275390625,-0.10693359375,0.947265625,-0.447265625,0.,-0.65087890625,0.,0.35302734375,-1.12255859375,0.,0.,-0.85498046875,0.,0.,-0.224609375,0.,0.76611328125,1.5732421875,-0.16357421875,0.7353515625,0.,0.,-0.52783203125,0.,-0.6826171875,0.,0.,0.20361328125,-2.05908203125,-0.99951171875,-0.771484375,-0.583984375,0.73486328125,0.,0.,-0.8017578125,0.,0.34716796875,0.,-1.56298828125,0.6806640625,-1.26904296875 };
static beta_biases_t betaBiases[BETA_WIDTH] = {0.4588623046875 };
static beta_weight_t betaWeights[DENSE_11_OUTPUT_WIDTH * BETA_WIDTH] = {-3.9998779296875,1.343505859375,1.44921875,0.,0.,3.9998779296875,-1.257568359375,-1.5064697265625,0.,0.5330810546875,2.6168212890625,-0.631103515625,0.,-2.4639892578125,0.,0. };
static energy_biases_t energyBiases[ENERGY_WIDTH] = {0.3701171875 };
static energy_weight_t energyWeights[DENSE_11_OUTPUT_WIDTH * ENERGY_WIDTH] = {2.40869140625,0.,0.212890625,0.2255859375,0.248046875,0.,8.08740234375,0.09375,0.,-0.0595703125,0.,0.,0.14794921875,0.,-0.64892578125,-0.109375 };
static signal_biases_t signalBiases[SIGNAL_WIDTH] = {-1.3634033203125 };
static signal_weight_t signalWeights[DENSE_11_OUTPUT_WIDTH * SIGNAL_WIDTH] = {2.425048828125,2.189697265625,2.6568603515625,0.,-1.9586181640625,0.,-0.130615234375,-0.8388671875,-0.9373779296875,-2.933837890625,0.,2.2432861328125,0.,0.,0.,2.383056640625 };

#endif 
